/////////////////////////////////////////////////////////////
// Copyright (C) 2003-2006 Bryan Clark and Kenneth Esler   //
//                                                         //
// This program is free software; you can redistribute it  //
// and/or modify it under the terms of the GNU General     //
// Public License as published by the Free Software        //
// Foundation; either version 2 of the License, or         //
// (at your option) any later version.  This program is    //
// distributed in the hope that it will be useful, but     //
// WITHOUT ANY WARRANTY; without even the implied warranty //
// of MERCHANTABILITY or FITNESS FOR A PARTICULAR PURPOSE. //  
// See the GNU General Public License for more details.    //
// For more information, please see the PIMC++ Home Page:  //
//           http://pathintegrals.info                     //
/////////////////////////////////////////////////////////////

#include "HermiteQuad.h"
#include <cstdio>

const double Hermite16::u[16] = 
  {
    -4.6887389393058183646884986487456109,
    -3.8694479048601226987194240980148124,
    -3.1769991619799560268139945592636965,
    -2.5462021578474813621593287054458941,
    -1.9517879909162539774346554149598875,
    -1.3802585391988807963720896696945820,
    -0.82295144914465589258245449673394264,
    -0.27348104613815245215828040196501503,
    0.27348104613815245215828040196501503,
    0.82295144914465589258245449673394264,
    1.3802585391988807963720896696945820,
    1.9517879909162539774346554149598875,
    2.5462021578474813621593287054458941,
    3.1769991619799560268139945592636965,
    3.8694479048601226987194240980148124,
    4.6887389393058183646884986487456109
  };

const double Hermite16::weight[16] =
  {
    0.936874492884069357470004849343,
    0.738245622277681359882790450736, 
    0.655755672876117706470598922177, 
    0.609736958255997285624299714816, 
    0.581247275400863892026244221843, 
    0.563217829088199837712368695265, 
    0.552441957367459390415739574435, 
    0.547375205037843999281961634810, 
    0.547375205037843999281961634810, 
    0.552441957367459390415739574435, 
    0.563217829088199837712368695265, 
    0.581247275400863892026244221843, 
    0.609736958255997285624299714816, 
    0.655755672876117706470598922177, 
    0.738245622277681359882790450736, 
    0.936874492884069357470004849343
  };


const double Hermite20::u[20] =
  {
    -5.3874808900112,
    -4.6036824495507,
    -3.9447640401156,
    -3.3478545673832,
    -2.7888060584281,
    -2.2549740020893,
    -1.7385377121166,
    -1.2340762153953,
    -0.7374737285454,
    -0.2453407083009,
     0.2453407083009,
     0.7374737285454,
     1.2340762153953,
     1.7385377121166,
     2.2549740020893,
     2.7888060584281,
     3.3478545673832,
     3.9447640401156,
     4.6036824495507,
     5.3874808900112
  };



const double Hermite20::weight[20] = 
  {
    0.8985919614532,
    0.7043329611769,
    0.6222786961914,
    0.5752624428525,
    0.5448517423644,
    0.5240803509486,
    0.5096790271175,
    0.4999208713363,
    0.4938433852721,
    0.4909215006667,
    0.4909215006667,
    0.4938433852721,
    0.4999208713363,
    0.5096790271175,
    0.5240803509486,
    0.5448517423644,
    0.5752624428525,
    0.6222786961914,
    0.7043329611769,
    0.8985919614532
  };


const double Hermite30::u[30] =
  {
    -6.8633452935298915810611083575550266,
    -6.1382792201239346203949923785375795,
    -5.5331471515674957251183335555803967,
    -4.9889189685899439444864971063309543,
    -4.4830553570925183418870376197091052,
    -4.0039086038612288152278760133218181,
    -3.5444438731553498869254009021683636,
    -3.0999705295864417486887333223746390,
    -2.6671321245356172005711064642208749,
    -2.2433914677615040724729799948250614,
    -1.8267411436036880388358804835061281,
    -1.4155278001981885119407251055475798,
    -1.0083382710467234618049896086964179,
    -0.60392105862555230777815567875734182,
    -0.20112857654887148554576301324369219,
    0.20112857654887148554576301324369219,
    0.60392105862555230777815567875734182,
    1.0083382710467234618049896086964179,
    1.4155278001981885119407251055475798,
    1.8267411436036880388358804835061281,
    2.2433914677615040724729799948250614,
    2.6671321245356172005711064642208749,
    3.0999705295864417486887333223746390,
    3.5444438731553498869254009021683636,
    4.0039086038612288152278760133218181,
    4.4830553570925183418870376197091052,
    4.9889189685899439444864971063309543,
    5.5331471515674957251183335555803967,
    6.1382792201239346203949923785375795,
    6.8633452935298915810611083575550266
  };



const double Hermite30::weight[30] = 
  {
    0.8342474710127617953407203967, 
    0.649097981554266700709961136, 
    0.569402691949640503966094892, 
    0.522525689331354549642402498, 
    0.49105799583288269650554983, 
    0.468374812564728816774690513, 
    0.451321035991188621287464588, 
    0.438177022652683703695367032, 
    0.4279180629327437485827730260,
    0.4198950037368240886418132650, 
    0.41367936361113893718433910583, 
    0.408981575003531602497229317388, 
    0.405605123325684436312140238733, 
    0.403419816924804022552760123219, 
    0.402346066701902927115350128334, 
    0.402346066701902927115350128334, 
    0.403419816924804022552760123219, 
    0.405605123325684436312140238733, 
    0.408981575003531602497229317388, 
    0.41367936361113893718433910583, 
    0.4198950037368240886418132650, 
    0.4279180629327437485827730260,
    0.438177022652683703695367032, 
    0.451321035991188621287464588, 
    0.468374812564728816774690513, 
    0.49105799583288269650554983, 
    0.522525689331354549642402498, 
    0.569402691949640503966094892, 
    0.649097981554266700709961136, 
    0.8342474710127617953407203967
  };



